<?xml version="1.0"?>
<opencv_storage>
<cascade>
  <stageType>BOOST</stageType>
  <featureType>HAAR</featureType>
  <height>24</height>
  <width>24</width>
  <stageParams>
    <boostType>GAB</boostType>
    <minHitRate>9.9500000476837158e-01</minHitRate>
    <maxFalseAlarm>5.0000000000000000e-01</maxFalseAlarm>
    <weightTrimRate>9.4999998807907104e-01</weightTrimRate>
    <maxDepth>1</maxDepth>
    <maxWeakCount>100</maxWeakCount></stageParams>
  <featureParams>
    <maxCatCount>0</maxCatCount>
    <featSize>1</featSize>
    <mode>BASIC</mode></featureParams>
  <stageNum>7</stageNum>
  <stages>
    <!-- stage 0 -->
    <_>
      <maxWeakCount>1</maxWeakCount>
      <stageThreshold>9.9600797891616821e-01</stageThreshold>
      <weakClassifiers>
        <_>
          <internalNodes>
            0 -1 0 2.7753669023513794e-01</internalNodes>
          <leafValues>
            -1. 9.9600797891616821e-01</leafValues></_></weakClassifiers></_>
    <!-- stage 1 -->
    <_>
      <maxWeakCount>1</maxWeakCount>
      <stageThreshold>9.0476191043853760e-01</stageThreshold>
      <weakClassifiers>
        <_>
          <internalNodes>
            0 -1 7 -7.3465421795845032e-02</internalNodes>
          <leafValues>
            9.0476191043853760e-01 -1.</leafValues></_></weakClassifiers></_>
    <!-- stage 2 -->
    <_>
      <maxWeakCount>1</maxWeakCount>
      <stageThreshold>7.2413790225982666e-01</stageThreshold>
      <weakClassifiers>
        <_>
          <internalNodes>
            0 -1 5 6.6224560141563416e-02</internalNodes>
          <leafValues>
            -1. 7.2413790225982666e-01</leafValues></_></weakClassifiers></_>
    <!-- stage 3 -->
    <_>
      <maxWeakCount>2</maxWeakCount>
      <stageThreshold>-6.4514629542827606e-02</stageThreshold>
      <weakClassifiers>
        <_>
          <internalNodes>
            0 -1 2 2.1459117531776428e-01</internalNodes>
          <leafValues>
            -8.5507243871688843e-01 6.1048686504364014e-01</leafValues></_>
        <_>
          <internalNodes>
            0 -1 9 -4.5004837214946747e-02</internalNodes>
          <leafValues>
            8.3768582344055176e-01 -6.7500150203704834e-01</leafValues></_></weakClassifiers></_>
    <!-- stage 4 -->
    <_>
      <maxWeakCount>2</maxWeakCount>
      <stageThreshold>-4.8765957355499268e-01</stageThreshold>
      <weakClassifiers>
        <_>
          <internalNodes>
            0 -1 8 -1.1918497085571289e-01</internalNodes>
          <leafValues>
            5.8730161190032959e-01 -7.9919677972793579e-01</leafValues></_>
        <_>
          <internalNodes>
            0 -1 1 9.3186937272548676e-02</internalNodes>
          <leafValues>
            -9.5776170492172241e-01 3.1153720617294312e-01</leafValues></_></weakClassifiers></_>
    <!-- stage 5 -->
    <_>
      <maxWeakCount>2</maxWeakCount>
      <stageThreshold>-5.4128718376159668e-01</stageThreshold>
      <weakClassifiers>
        <_>
          <internalNodes>
            0 -1 10 5.9220392722636461e-04</internalNodes>
          <leafValues>
            -8.5977858304977417e-01 2.8966522216796875e-01</leafValues></_>
        <_>
          <internalNodes>
            0 -1 6 2.0381322503089905e-01</internalNodes>
          <leafValues>
            -8.3095240592956543e-01 4.3445348739624023e-01</leafValues></_></weakClassifiers></_>
    <!-- stage 6 -->
    <_>
      <maxWeakCount>3</maxWeakCount>
      <stageThreshold>-3.3213368058204651e-01</stageThreshold>
      <weakClassifiers>
        <_>
          <internalNodes>
            0 -1 3 -4.2302142828702927e-02</internalNodes>
          <leafValues>
            2.6050421595573425e-01 -8.7277352809906006e-01</leafValues></_>
        <_>
          <internalNodes>
            0 -1 0 3.5823422670364380e-01</internalNodes>
          <leafValues>
            -8.5373342037200928e-01 3.2714015245437622e-01</leafValues></_>
        <_>
          <internalNodes>
            0 -1 4 -1.3532509095966816e-02</internalNodes>
          <leafValues>
            2.9175078868865967e-01 -9.1977804899215698e-01</leafValues></_></weakClassifiers></_></stages>
  <features>
    <_>
      <rects>
        <_>
          0 0 8 21 -1.</_>
        <_>
          4 0 4 21 2.</_></rects>
      <tilted>0</tilted></_>
    <_>
      <rects>
        <_>
          0 1 20 5 -1.</_>
        <_>
          10 1 10 5 2.</_></rects>
      <tilted>0</tilted></_>
    <_>
      <rects>
        <_>
          1 0 10 14 -1.</_>
        <_>
          6 0 5 14 2.</_></rects>
      <tilted>0</tilted></_>
    <_>
      <rects>
        <_>
          2 2 14 22 -1.</_>
        <_>
          2 2 7 11 2.</_>
        <_>
          9 13 7 11 2.</_></rects>
      <tilted>0</tilted></_>
    <_>
      <rects>
        <_>
          8 10 12 14 -1.</_>
        <_>
          8 17 12 7 2.</_></rects>
      <tilted>0</tilted></_>
    <_>
      <rects>
        <_>
          11 0 6 24 -1.</_>
        <_>
          14 0 3 24 2.</_></rects>
      <tilted>0</tilted></_>
    <_>
      <rects>
        <_>
          15 3 9 21 -1.</_>
        <_>
          18 3 3 21 3.</_></rects>
      <tilted>0</tilted></_>
    <_>
      <rects>
        <_>
          18 2 6 13 -1.</_>
        <_>
          21 2 3 13 2.</_></rects>
      <tilted>0</tilted></_>
    <_>
      <rects>
        <_>
          19 0 4 19 -1.</_>
        <_>
          21 0 2 19 2.</_></rects>
      <tilted>0</tilted></_>
    <_>
      <rects>
        <_>
          20 0 4 24 -1.</_>
        <_>
          20 0 2 12 2.</_>
        <_>
          22 12 2 12 2.</_></rects>
      <tilted>0</tilted></_>
    <_>
      <rects>
        <_>
          22 0 2 8 -1.</_>
        <_>
          23 0 1 8 2.</_></rects>
      <tilted>0</tilted></_></features></cascade>
</opencv_storage>
